-5.333615194925838549e-02,-1.330164945653870001e-01,-1.017636890075568068e-01,-8.150332060870352224e-02,-6.479221094031283046e-02,-7.994943986644685585e-02,-1.556602600703455574e-01,1.071681024739521843e-01,-8.985557841354299691e-02,-6.547215408305516460e-02,-1.033143766775595079e-01,1.546744796571311309e-01,1.751048992671032090e-01,6.673584173169246070e-02,-1.150726665154325375e-02,2.383134783727891039e-03,-4.430717165299925125e-02,-6.343506514630965765e-02,9.384092034548659200e-03,1.258891326689597356e-01,6.571381712145125953e-02,-3.360439830483796797e-02,8.256990353633918145e-02,-1.263392789249523085e-01,-5.558214380041277825e-02,-1.325187931563398362e-02,-1.036404960203928319e-02,-1.126051374225320312e-01,-8.933919993501317908e-03,1.149571096970722212e-01,1.931722900513965779e-01,-1.126744436433781554e-01,1.364857794908507505e-01,9.834888184100568087e-03,5.673606218931769724e-02,5.147189083420843948e-03,-4.609072148919112800e-03,3.104473830895236684e-03,-2.087559884247374986e-01,3.993605232882064225e-03,-8.567689969998595195e-03,8.367760791537506848e-02,-1.290800983369535526e-01,1.320891446398510805e-01,-1.336723854615812779e-01,-1.182924175003032541e-01,1.503476531813732475e-01,-1.250875556240868200e-02,2.006742576849813650e-02,7.355959573113381167e-02,1.596609758572285209e-01,8.889942156479113677e-02,4.697613165731327756e-02,1.097206176096019864e-01,2.075546043531451279e-01,-1.719379986154755957e-01,-1.637697907151780263e-01,-1.860669112488877452e-02,-2.822884032640890495e-01,-1.364538459797510206e-01,9.807903256073179088e-02,3.288079600873713287e-02,4.214974386914457916e-02,4.455708403867901513e-02
-1.529891895685405179e-01,5.799777591732085263e-02,-2.726207980436913259e-01,7.318069259242872271e-02,-4.914304940299200203e-02,-1.118503207949813200e-01,2.131354412853049898e-02,2.439299180141729986e-02,-1.517857308626026913e-01,4.520770349433299307e-02,-1.914233195977911861e-01,-1.468781777944995759e-01,-9.584313038606481414e-03,2.046705554824158196e-03,2.467917453738714337e-02,1.231058024186801846e-02,-2.399086038575466706e-01,6.299876516705996132e-02,1.769218028896040185e-01,1.627633402805672702e-01,1.289147392252625555e-02,1.775111399767345111e-01,7.846182520094735491e-02,-3.196643629985454482e-01,8.801739359467375401e-02,-7.661536837125966677e-03,1.435185244755744494e-01,1.698154197969078405e-01,-4.240252734930965994e-02,-1.148644399164867880e-01,-2.993571170549725810e-02,-1.000073324715247264e-01,9.369449910926364034e-02,-4.225718219012990738e-03,2.490907607340582808e-01,-1.042426991938732311e-01,3.682373818486323752e-02,-3.031402655974328730e-02,-1.780276252011072854e-02,-1.462721440502286474e-01,-5.642596088335932736e-02,3.857644650455533970e-03,1.303075221378577619e-01,1.851122970955731417e-01,6.731616110451825452e-02,1.278154101080355431e-01,-5.469053520472993979e-02,-1.165354922478025607e-01,1.118226016556446017e-01,-1.058278511785873816e-01,1.839160230066016199e-01,-1.388004769465594201e-01,3.904570630007977994e-02,3.688653838592296803e-03,6.008646959407418914e-02,3.263127376928361828e-02,7.121847130196476416e-02,-4.098933325198295119e-02,-1.189021050645900773e-01,-2.073713308484933238e-01,2.285518452144786050e-01,-1.969111596820966592e-01,2.094009877700433175e-01,-4.489448650415753250e-02
-1.347331990539871738e-01,-2.045827264250402872e-02,2.435099909540459351e-01,-7.602495921710633597e-02,-2.364784300690097110e-02,-1.597564849009331656e-01,1.181486517503642086e-01,-7.458951686510613410e-02,-2.143207436205514516e-02,-7.556100232163265318e-02,-6.696295807201045613e-02,-7.686216572951114212e-02,-2.890755669543631362e-02,-1.723559559066373814e-01,7.722455597210513278e-02,2.106158887614751341e-01,-7.795853302704572330e-02,-1.371337467399026157e-02,-2.529811415347461151e-02,1.767081568325292174e-01,8.209231840941694225e-02,-5.517204003901700349e-02,-1.456220298527756418e-01,-1.654845882774506616e-01,-3.163041147906044733e-03,-1.531830312201596100e-01,-3.155454724442772335e-02,2.271697973404699852e-02,-4.802603582144687744e-02,-1.575076936591883747e-01,-1.230849239490857117e-01,-7.673732324426206508e-02,-9.835937702008692995e-02,1.356039593790001052e-01,-5.871828951375197142e-02,-1.479612108272762572e-01,2.274145005878573378e-01,-1.182308738588313674e-01,1.487403900257653136e-03,6.004625964780744424e-02,1.201596947153817617e-02,1.180546721155565325e-02,-9.965868482442882814e-02,-5.985478169702324741e-02,1.792954835689764270e-01,1.299249619254929378e-01,-2.883897510471605460e-02,2.213650575596962100e-01,9.837539229524382145e-02,-1.711391770910935736e-02,-5.316620413387457278e-02,1.724136489071218248e-01,2.723723297278141664e-01,-1.878963452066045176e-02,1.248062006677520819e-01,1.986042004080184054e-01,-9.627891289257059504e-02,6.418130225091153718e-02,2.520451277575084040e-02,4.856631748800044335e-02,1.088019205754209434e-01,4.112561962868284404e-02,-3.474862990121414807e-02,-1.514513844071570768e-02
1.502377405472157812e-01,8.373572555204381040e-02,-1.826511650386015428e-01,-3.598853365950797911e-02,-1.148386114889367732e-01,1.296872998874736005e-01,-6.619451852124041968e-02,1.345986648459235602e-01,-2.456677514783827537e-02,-1.503069803761271014e-02,-1.959323848331905593e-01,-1.641818318114009745e-01,7.649564164765138008e-02,-2.530232208902273572e-02,-2.365146333219836708e-02,1.484462008390044496e-01,6.358848141330630810e-02,-1.778168209988390536e-01,-7.060367113677082362e-02,-2.933643202598095745e-01,3.148070060027865491e-01,-1.550816518668540200e-01,7.716344641924964554e-02,-3.691138572150902408e-02,1.219512566375068469e-01,-1.195334970803933333e-01,-1.280710645995839468e-02,-7.428902729018783957e-02,7.633182656149202494e-02,-9.954179834890510004e-02,1.027637541354003807e-02,-1.462497679231315739e-01,-2.760143600204586489e-01,2.455198871244367587e-01,-9.997712067396916091e-02,2.310393314196187431e-01,2.207913101707229264e-01,-2.261819889575837628e-02,-1.807997866946823434e-02,1.126632089356616739e-01,1.290091701916234734e-01,1.207114887407989418e-01,1.001432705072465706e-01,1.402297688425175326e-01,1.513035074511380196e-01,-8.584776316198450274e-02,2.018346610186715628e-01,-9.011863426008091815e-03,1.599410019197007315e-01,1.390675035172427021e-01,1.014820141168092521e-01,1.900381589988600628e-01,3.188898332280533376e-02,-1.206039975270399994e-01,-1.103819363172168916e-01,4.012573133694350043e-03,-4.043422761745241178e-02,2.033478058993679338e-01,-6.598060897201499242e-02,1.064570630079929858e-01,-4.026993790245662203e-02,2.604939983820087068e-01,8.063815032994067766e-02,-8.102428487088407863e-03
1.837692851458863907e-01,-9.378864735949868359e-02,-1.425295761115625282e-01,1.139600248725660672e-03,-1.340907569594144144e-01,-1.549191693742187903e-01,-4.750067147040194435e-03,7.420250503719506840e-02,5.002841025534283254e-02,2.637640474468366802e-01,8.659421235966925645e-02,-1.297482147763054650e-01,-1.141413102967157867e-01,-1.345916895253928547e-01,-2.063918631304986762e-02,1.686920250540676833e-02,-8.301721008333017016e-02,-4.595224038113004256e-02,1.387143167400467503e-01,9.157052534699600121e-02,-3.663075607722866400e-03,8.614600970775415645e-02,8.009029353458390135e-03,-1.118962388553501608e-01,5.923993941228238719e-02,-1.286547155373622409e-01,-7.715335679196276553e-02,-6.269881590576872887e-02,-3.503036892705720384e-01,1.014023184140094569e-01,-8.723351589931435668e-02,-3.076831397955924127e-02,1.076102327318949614e-01,7.075478840513620138e-02,2.151857576371172531e-01,-5.506053687658334778e-02,-1.010973594220051924e-01,-9.492198617387453963e-02,3.656226788151240720e-02,1.550458299820157426e-01,-3.476582988404313540e-02,2.296588637723093965e-03,1.170566064724192362e-01,9.097683080082052953e-02,-5.304768366069721047e-03,7.681700687962406127e-02,-2.238223526626463844e-01,2.587995681776661221e-03,3.662895493951947440e-02,1.671798983260966154e-01,-5.503694584044248328e-02,7.144275049949797007e-02,-1.340714730112619046e-01,-6.623244500995480177e-02,3.889015164304950034e-02,-1.793365288972353574e-02,-9.160942364286907280e-02,-3.645789946549513050e-02,-2.442665896753435859e-02,-1.128373195063333070e-02,1.161527332801975121e-01,3.792472147588670656e-02,1.871047719542888454e-01,-1.057141021390476110e-01
2.099470450167326835e-02,-1.457619016314810612e-01,-1.965844616931635702e-01,-1.638432505090830493e-01,-8.630069513784487112e-02,-4.243995029764035393e-02,5.844700897854927107e-02,-1.161502784129253563e-02,-3.451712549788408385e-02,-2.598282398122293557e-01,3.297688884297466511e-02,1.269375654652925289e-01,-1.511406516034089209e-01,-3.357444790202841062e-02,2.911289430477508738e-02,1.644804570254699283e-01,2.638180737386589328e-02,1.996890348675014748e-01,1.610351367737249172e-03,-1.128171286106725499e-02,1.890827920826016473e-01,-4.958694691289756290e-02,-3.224167854433690472e-02,-8.199277329279455739e-02,-2.052059771812618852e-02,1.506010593774050055e-01,4.080483505294039276e-02,1.140468453015393568e-01,3.772246389842441594e-02,-6.904579408240561766e-02,-1.530316736276129963e-01,-3.912730200816575549e-02,-1.561261701940514501e-01,-2.638368934200165938e-01,-5.189054208220970910e-02,-1.778415367039458492e-03,4.659886391749960832e-02,-8.584230442258933280e-02,-1.524504942455877088e-01,-4.710258175486747856e-02,-1.518642901778077814e-01,1.000166313516704514e-01,-4.036465421910716278e-02,9.736826979324704479e-02,-6.797821720442606686e-02,3.098173422750529968e-02,3.696016577363368805e-02,-7.685766771002433551e-02,-6.225112032111639049e-02,-1.812274631802144459e-02,-2.577098572509644789e-02,-6.660107133457229822e-02,7.494722215521783248e-02,-9.822578458290348591e-02,1.462626393737092856e-01,6.149388807898482912e-02,-7.362944043514619598e-03,-1.967770878809630558e-02,1.394375874346286681e-01,7.726629987759117690e-02,1.089114371755306454e-02,2.231801578808164932e-01,7.639827046212838146e-02,1.747078349576109413e-01
1.981741595098806749e-02,1.542545005299681138e-01,1.140518199587893938e-01,-8.556910451715066257e-02,5.045114109048954437e-02,2.253079915195701222e-01,-1.419502280579633229e-02,-7.407685447096727660e-02,2.652213906705455995e-02,-3.620135021732453356e-02,3.269821479725337071e-02,-8.472211957280979810e-02,-4.404838557771038887e-03,-6.416362339583545071e-02,-8.390877885328319741e-02,2.560122607952101670e-01,1.219414936325946275e-01,-1.150221447310822154e-01,4.015093923827794259e-02,1.714404397192558771e-01,-1.021608238573535193e-01,9.858643755270589393e-02,-9.030120149229566018e-02,5.174522416728146584e-02,-2.337120168047569779e-01,1.447597321571187645e-01,7.116741089394702791e-02,-4.408256425767032027e-02,2.633641267203750691e-01,6.986593539706346945e-02,-2.180717088660928671e-02,8.081834344602618903e-02,2.758344788917423962e-01,-8.115505740211416408e-02,-1.868495690232177542e-02,1.204894136573287505e-01,-1.678847855790094046e-01,-1.177433020286844656e-01,2.310022488703779818e-03,7.905017352382218143e-02,1.069709470186635952e-01,-1.295970367544717616e-01,-1.379189948683025302e-01,5.642862352398814174e-02,8.160687708112328992e-03,-1.340638864720993806e-01,-2.903563795631572408e-01,2.635056638638754931e-02,-1.614358978437308856e-01,-8.739627743026366635e-02,-5.697469926871514406e-02,3.529591747988724409e-02,1.478485301987947642e-01,-2.103828955213214169e-01,1.635421842604657394e-01,-9.625776060800471379e-02,-4.506353121292471127e-03,-9.924149370276588722e-02,7.741345619203364968e-03,7.826195652447187623e-02,-1.366110378160091954e-01,1.853165123951135140e-02,1.280786241871141595e-01,-2.034410391232018001e-01
-6.409883145408515337e-02,9.590672991916261714e-02,-1.176616350625935142e-01,5.105927421411221578e-02,-2.447661458345623195e-02,5.759693491717073066e-02,-1.705305944525473127e-01,-2.826057114756335698e-01,1.537567247577898422e-01,3.571779422794365000e-01,6.914692683910048099e-02,-6.748535048274612036e-02,2.003946330447741730e-01,-1.367400215173305011e-01,2.523778635294510880e-02,-7.399472656920873248e-02,3.120591724172015052e-02,8.102528512063353339e-02,1.848399104767231016e-01,6.567144447146807014e-03,-7.775882794479853366e-02,2.822973962810765292e-01,1.194437064315631292e-01,-1.067846098197215432e-01,-7.349802634481190922e-02,-1.311489716293946506e-01,-1.828574301520985157e-01,1.324104681945172113e-01,6.490664935630773014e-02,-1.681689028976252609e-01,1.826320631774786263e-01,5.697399432920582235e-02,-1.120608116736787202e-01,-2.405721987517601135e-01,-6.468740693882110704e-02,2.441763771560553353e-01,1.075188808193817541e-01,-1.624672781540751343e-01,1.591494818075709639e-01,-2.109691412796294574e-01,2.055866364951546843e-01,-7.417989958084739155e-02,-3.252721917280034791e-01,-2.862230760539065666e-01,1.091219525026723286e-01,7.698408099333955978e-02,-5.132020519739800141e-02,9.834551169191924763e-03,8.536224863854299794e-02,2.641981157447403916e-01,1.311997773093175612e-01,1.346108333326631046e-01,1.094574659825146012e-01,-6.663397849848957943e-02,7.238477740467932908e-02,1.455130624165358044e-01,5.170175485249052516e-02,-1.900740427329194321e-03,8.930729980631668674e-02,-2.073102583732742421e-01,-3.099788197171093190e-02,5.140548210330048162e-02,-1.097548879724918464e-01,1.018973526016746373e-01
1.665449352306436204e-01,-8.993201728441579945e-02,-2.206925812937025888e-02,8.524100418881201680e-02,1.469410305938165240e-01,2.090647556767788462e-01,1.023287254629072635e-01,-1.252714128568852281e-01,3.619162546530058783e-02,1.254474698613255168e-01,3.167369453266596913e-01,-8.593446271038127082e-02,7.277423954408517026e-02,-1.198349579174068716e-02,8.262352607914746905e-02,1.092634736467909262e-01,-4.756712194480103989e-02,1.153262491324389405e-01,-4.104653682653087998e-02,-2.444323259354763411e-01,1.270562290186419696e-01,3.806026351842295430e-02,6.890163113212548207e-02,6.967113941964543644e-02,1.025114710517760763e-01,9.246711185658375298e-02,-1.592930822559008308e-01,-8.429481933210739020e-02,-3.619688767714836913e-02,-1.250034189567104069e-02,-7.693895393634461732e-02,7.561828101252202061e-02,-1.489262311931137395e-01,3.283714178970974507e-01,-1.099914330798377748e-01,1.452271202111451998e-01,-8.457755413086530394e-02,-8.587061633518014436e-02,1.639151903643892849e-01,-7.685966228596349814e-02,1.116210914951682731e-01,1.057032371323820136e-01,7.648472563081722131e-02,-1.018584427721631880e-01,-5.356759253267221604e-02,-7.623886492368502077e-02,-1.555695587139008067e-02,-1.078796371656311334e-03,-2.130936056716856500e-02,1.690329720333492158e-01,1.284470618609078740e-01,1.450015797843351960e-02,-1.629411158741913557e-01,-7.446482572236419462e-02,8.295746132708689546e-02,2.491634352916226869e-01,-1.964276974776256179e-01,7.467298802439635563e-02,1.909440640504749265e-01,5.232264087727123147e-02,3.184158499421169686e-01,-1.464664688011358962e-01,-2.685225971466607964e-02,1.587393872317952870e-01
-1.867480046887788625e-01,-6.568696145549579590e-02,7.168890515476147862e-02,-2.454465657902074882e-01,5.582488919820712686e-02,-1.988545562308960749e-02,-2.191896958093950132e-03,-1.809861061046911801e-01,9.639417353368948116e-02,2.083854745605468947e-02,-9.455113413707678938e-02,5.547932915404971133e-02,-3.084935716090119514e-03,5.275228344620872672e-02,-3.710008568332370110e-02,-1.084027154147538530e-01,-6.039055498187323456e-02,-6.257146811749128568e-02,1.451866933510596001e-02,7.722395450477033407e-02,-9.318510808375199406e-02,-1.193337653031062706e-01,1.483124063079785671e-01,4.549920361649923556e-02,1.325940652875945980e-01,-1.529114049894109151e-01,1.039502334161877956e-01,2.289298932766416494e-01,-7.274164622849856043e-02,1.353396018286107420e-03,-1.583868791525167019e-02,1.256628200792387906e-01,5.616570754384364421e-03,1.346957253238239283e-01,5.367088109225512382e-02,-1.191857823593345245e-01,7.202541705375732628e-02,1.838993556099565163e-01,1.544616877356210782e-01,-1.030138311116382821e-01,2.659519043630651294e-02,2.252401461101504743e-01,1.909925569518482538e-02,1.202480104388824363e-02,-3.985043771786909994e-02,3.297949833404316133e-01,1.482464068513374145e-01,-1.139340099132858664e-02,-1.116365897188436804e-02,-2.743089652267265491e-02,-8.951351807452380405e-02,-1.136418432482664631e-03,-3.576929941228958881e-02,1.467844923548519975e-01,4.022588130284438651e-02,-1.762673900884876872e-03,8.900634463688914672e-03,-2.541066614115818773e-02,2.477679745001537259e-01,7.682736559577028890e-02,1.121470639656372836e-01,1.256464431772160717e-01,-1.865346429312168541e-01,8.795439459837349483e-02
-7.807636936825765317e-02,7.057262742428579982e-02,-1.066043942575859577e-02,5.114174897103815343e-02,2.361861460803703350e-01,1.395250366581405645e-02,-8.316669633671207318e-02,1.695163896933930825e-01,1.231686849707494119e-01,1.312203580410017667e-01,-5.951890983222351411e-02,-2.130741848064425514e-01,6.301962481100367719e-02,1.248861206584073180e-01,1.378101242557675243e-01,-1.455581155642909075e-01,-1.251753836958384991e-01,8.736118612853648047e-02,3.508332850421361226e-01,-5.188137355539597373e-02,8.082496485950624310e-02,-1.625021448060538221e-01,-2.470034459344327415e-01,-2.586383146587800316e-02,2.516547021936889061e-01,-1.832818114663411352e-02,3.637501736480161507e-01,-1.213989569219804388e-01,2.782920705537328052e-02,-7.458563070950348373e-02,1.640109653940763634e-01,7.397764671484638975e-03,-6.493071566027877606e-02,-2.728378562373297012e-01,8.119054833803264828e-03,-1.289756621886112009e-01,-9.600767910363960933e-02,-2.086349717898168810e-01,-1.464367518240250812e-02,1.291942752939049810e-01,9.484702000203597272e-02,-9.843108069362957457e-02,1.066448356459278740e-01,1.320960655871247086e-02,-1.318339412317138734e-02,-1.153609036023198475e-01,-5.014995936571536167e-02,-8.874954812756087608e-02,-8.948884346862538697e-02,-7.597371542874392474e-03,2.204590619157618669e-01,2.606176931447486966e-01,-2.114660014367199595e-02,6.812600849938947600e-02,-1.682609462387621435e-01,-1.372778556294725893e-01,7.618882494724467380e-02,1.474096934749822008e-01,-7.534645486488564248e-02,7.099710706185284603e-02,-1.828030424610281035e-01,1.965770718321583066e-01,5.515627202158526754e-02,7.221497974122162433e-02
3.385148989770965511e-02,-1.281066352546895160e-01,-5.464952583912233847e-02,-2.762923902073567417e-01,1.246772964086544366e-01,5.232962888298252346e-02,1.872222271087807810e-01,3.894045926215266434e-02,-1.353428413591998836e-01,-2.070419604810028180e-02,-7.202365318249127901e-02,-3.995065471447076938e-02,8.322606687367949119e-02,-1.513622612992389926e-01,-7.160951210992629046e-02,-1.321983770984448414e-01,1.089191939393726466e-01,-1.492689359371986713e-01,2.837649682333392293e-02,-1.326771167798828088e-01,3.107556945258289904e-02,1.458409908030257329e-01,-6.097635602097092877e-02,-1.289301126611249737e-01,1.130564946391989373e-01,9.346043982386584292e-02,-1.336356819117498484e-01,-2.675275331158986220e-02,9.469890671681166494e-02,1.198036792486134733e-01,3.850607805048471000e-01,8.855342521794534738e-02,1.127579826443711603e-01,3.838652023644811839e-02,7.484192335786712946e-02,-1.514655990659540541e-01,-1.096198567102508320e-01,1.347890608065367979e-01,1.351436556731138439e-01,4.645659169034895009e-02,2.360628270319870253e-03,1.104153100093325790e-01,3.404862701554076804e-03,-2.429943479181004631e-02,-1.542536071582557289e-01,5.934894444066952067e-03,1.665748284325322404e-01,-2.528444434476002575e-02,3.371051823369432959e-02,8.706055245733819448e-02,-4.490242818965958782e-02,1.618633032166113539e-01,-1.803939200651347510e-02,2.454763722807178083e-02,-1.910268636600458148e-01,-2.365501770545374027e-01,-5.213984191668138285e-02,-9.241490454864334514e-02,-1.665148438397263120e-01,-4.206988646944596205e-02,-2.635386471606400161e-01,-2.237176496638978995e-01,2.117677830094076910e-02,5.643743962827098108e-03
1.659391918807659461e-01,-1.694248777765701083e-02,-1.115080474883870382e-01,8.911767269225813470e-02,-1.477695323874169547e-02,-1.034717584734720225e-01,1.745111073362485554e-01,2.138861845287093610e-01,-2.214003646300154518e-02,-1.296120191573957824e-02,1.390314738525109950e-01,-6.378921684532116998e-02,-2.105501863366457047e-02,-4.856559073148530165e-02,6.888152579802898912e-02,1.522652397813384698e-02,-9.857047361943752084e-02,-1.961123352591675195e-01,-1.730871641945510575e-01,-2.059315630567050137e-01,-2.391751081217701747e-01,-1.199103732047459570e-01,8.690292334077989733e-03,-4.108533580892766157e-02,1.794181757630032570e-02,-1.006991929436852340e-01,-1.390707409291675259e-02,8.999628852709465332e-02,1.699958190703860228e-01,-1.771259619598378743e-01,-2.185062851899429448e-01,3.923772558825731199e-03,2.092510956143119050e-02,1.735036400542575366e-03,9.503950807578259719e-02,7.883286881780578181e-02,1.399009991559884702e-01,-5.619636756372713843e-02,9.411369113736155201e-02,-3.267306077869964326e-02,5.862464454026361516e-02,-1.492045270915441091e-01,-8.821859358870957901e-02,-1.116357194029884842e-01,-2.575909755953828886e-02,1.887360142959810527e-01,1.303813280788651274e-01,3.805958905092362426e-02,-5.040752343188724394e-02,-1.700378270266025560e-01,-1.959534435982800138e-01,-2.015924016272192115e-02,-9.433892314658011424e-02,-1.303939387818737854e-02,-1.023084437874902664e-01,9.915369071477700413e-02,7.314371908994070359e-02,-8.608683963081031898e-02,-2.457413838241621351e-01,4.278213345773428100e-02,-7.235934763512619737e-03,-6.743070797634784230e-02,7.990490770968622369e-02,2.568476352352147985e-03
-4.294961628877703302e-02,-7.370987754510407997e-02,-1.137382213949639370e-01,-3.879138521536142081e-02,2.190300079647287262e-02,-4.409695212217206589e-02,5.723924954168654877e-02,-3.701291954845236949e-03,1.005711335232988141e-01,-6.124620119322538025e-02,8.758462613781237138e-02,-1.865096610038731884e-03,2.247458043805933281e-02,-6.748281196154158612e-02,1.109231063145899449e-01,8.318150595410027381e-02,-1.033571588390259366e-01,4.237714773068688989e-02,2.644725513220209240e-02,-8.635501471199788504e-02,-2.359457427750235037e-01,1.765560864654288076e-01,-6.092221005267331457e-02,-8.547271878325359007e-02,-6.704113443036945064e-02,3.299704890088194648e-02,4.321069815357541505e-02,7.899568911056824294e-02,-3.082156344642797974e-01,7.068787547002766680e-02,-5.087470895031671880e-02,6.855994625350440852e-02,7.125704900083977555e-02,1.426951983433742861e-02,1.332281460875633927e-01,1.530233129275261339e-01,4.187148450484028117e-02,1.114285564787751842e-01,-8.546589386507920383e-02,7.482892874805162353e-02,-6.120664686854424691e-02,3.005294253337497876e-02,2.880513205064151872e-01,-6.026090138262075319e-02,7.315279864566138351e-03,1.000004840661456763e-02,4.591761821268565413e-02,-7.154671866566766902e-02,-9.071958963979196572e-03,7.063681633768274792e-02,1.412776613477225718e-01,-9.791556003756205287e-03,-5.151531137995412485e-02,-2.355491590636791255e-01,1.536871027379675125e-01,-2.939833424327499903e-02,8.001288026067603087e-02,-8.336215366248149461e-02,-9.334036362708419965e-02,-8.398898491846676362e-02,-1.780981911801029771e-01,-1.217338607371560855e-01,-2.528360567053050123e-01,2.344500801787242350e-01
-1.127202062645672048e-01,-1.548564812167503302e-01,-6.527910061857747359e-02,-7.486058798306972906e-02,-1.311747693932744513e-02,-7.638153799579251724e-02,2.039514434814686597e-02,-1.585979469727972768e-01,2.685831810843861689e-01,2.819162011366447840e-01,8.287522986203513242e-02,2.583621270547349982e-02,-1.273670023083083858e-01,9.540156103575773983e-03,-4.855810248414918484e-02,2.680829063560940528e-01,-1.025069787532209981e-01,-1.220946620002667515e-01,1.034834463260261295e-01,-4.819345082039387662e-02,1.501362037613039324e-01,9.510791631967009663e-02,4.198361869293575077e-02,-8.894516099699641132e-02,1.622348957139427006e-01,-6.388305280769548955e-02,1.680626741671302883e-03,-1.090298505960015513e-02,-1.418841445058935669e-01,1.943687009404819824e-02,7.257213767715095520e-02,8.247179408955160329e-02,6.785208340204157418e-02,-4.857995359558099635e-02,8.954745394399322989e-02,-1.423529819131210683e-01,-1.514533354705279999e-01,4.180556339238943736e-02,8.533973236348227354e-02,7.954561461104112108e-02,-5.674449534006752865e-02,-1.017330301238393298e-01,-1.360492272494449317e-01,-2.027363885464946169e-01,-1.160072061420903411e-01,-1.630662967173687750e-02,3.005912755662289992e-01,-1.697788676814904474e-01,2.912153027309808406e-01,6.715796076568929240e-02,-6.486894301774574767e-02,9.962349504048011173e-02,1.208943103230297467e-01,-9.891949879843625615e-02,1.892208990241698793e-02,-1.032629014527441241e-01,1.753188133623711023e-02,-4.751207683709259000e-02,1.810188338003251018e-01,2.077100329861462646e-01,1.136049400896777251e-01,2.391455243039054546e-01,8.396821644967156217e-02,1.233434255657963191e-01
-1.588541296360586330e-02,6.550718576941055860e-02,-2.327381279358009536e-02,-1.877337144253376777e-01,1.982383389047023825e-01,6.854366027403556438e-02,-3.078145327831870517e-02,-9.389088410880565283e-02,1.117878000932018973e-01,-6.324951811831543494e-03,-3.353478780212323235e-02,1.388185268967057628e-01,-4.007541930584312961e-02,5.682476893427923503e-02,4.682686606358739401e-03,-6.201957347007627797e-02,-1.044417797587370161e-01,1.901345794970225045e-01,7.066064403926389237e-03,-1.274984642989600986e-02,1.757800045944976630e-01,-7.543055657726450980e-02,-6.935649661758749862e-02,-1.143290308354642376e-01,-7.415680698528387405e-02,1.544390574528396558e-02,-1.825720584619865139e-02,6.756376913838369261e-03,2.290988813043137468e-03,7.087026106664666425e-02,-1.506998519458436214e-01,-5.250617346931385487e-02,1.230468338005077378e-01,-1.708380973747704312e-02,-5.096571683661771553e-03,1.012535555300673601e-01,-5.271036966526031209e-02,-1.636998920984477079e-01,3.055792272197615025e-02,-4.219810964239095047e-02,7.673114071590365903e-02,7.061279960734326289e-02,-9.285191514422755366e-02,-2.658436744436262211e-01,2.371561669536647113e-02,1.246937944197668985e-01,1.241010944909217706e-01,9.451485660516896481e-02,-2.314424880468827217e-01,5.888690985985685356e-02,1.212212975048447827e-01,-1.335667028330120576e-01,1.175206462098974391e-01,1.157716613134020765e-02,-2.221986926917019212e-01,-1.241815295928605373e-01,-1.124071664995805742e-01,-1.353947697998330035e-01,6.191477607912430903e-02,-6.493535969142019693e-02,2.560874885983223659e-01,-1.131160451378396270e-01,-5.504410321276716200e-02,-3.633897723788177131e-02
-3.733628134510092594e-02,8.552235949021187722e-02,5.416322455147373066e-02,2.847770692127948311e-01,2.059515203838019892e-01,1.523487367271794679e-02,2.361854249424536756e-01,4.422666965332310018e-02,1.218408009706199308e-01,-2.064434031262160629e-01,1.717510104425490347e-01,-9.713113563209251067e-02,6.408042202630501172e-02,7.634184221379788915e-02,3.719719040767899970e-02,4.811263115250813752e-03,-1.467137134713043800e-01,-2.718006037227366917e-02,-4.250754098955774468e-02,-1.884458749828488711e-01,-1.191295287393396782e-02,1.090054476567428876e-01,-1.910035416620890492e-01,-1.288982404248071312e-01,-1.338722150851756887e-01,-1.118612360263417510e-01,-1.806902237092359864e-01,-1.133569154820213559e-01,-7.894385294981304257e-02,2.904430400606701212e-01,-2.806833958647036303e-02,9.617104540730603279e-02,-1.033832347619024622e-01,2.274744291744466157e-02,5.730556429038403954e-02,-3.980646623183075467e-02,-8.319449170571865254e-03,-1.486998262124315240e-01,-1.926989500439269670e-02,-9.790887995603386740e-02,-6.717616906720255687e-02,-1.416286109815544612e-02,9.654248122326157533e-02,4.708754266343703754e-02,-6.225247387920465614e-02,1.434843962629744618e-01,1.435404163257532062e-01,1.031588716772348369e-01,-7.903201370480797405e-02,7.324339655352637979e-02,6.215439617327104399e-02,2.810013785150918819e-01,-1.372732294619818660e-01,1.744127425580390689e-01,1.899071750208933540e-01,4.781481283401944893e-02,-4.762197586454312327e-03,-1.638577137327981714e-01,1.859027660405288829e-01,9.492717715654207244e-02,-9.112814046597871032e-02,8.206276047425167808e-02,-8.713853249781529364e-02,1.562408442605488224e-01
-1.389442274995624504e-01,-1.593598254233830613e-01,1.324165626829688081e-01,-6.210036059105914635e-02,1.239204855431032086e-02,4.212003297056692019e-02,1.175195244977708525e-01,-5.726224958906811491e-02,3.371194548365339938e-01,8.939597222520511213e-03,3.615992666427642055e-02,-1.025488189738961858e-01,3.824856707244094628e-02,5.477237661606443493e-03,9.100404771973455431e-02,9.844392006465867151e-02,-9.900410467845552343e-03,3.803519384461417907e-02,-1.145440830304074453e-01,-2.484040518990568713e-01,-2.163988849951021531e-01,-3.704131286709166360e-01,-2.309968428485910941e-01,7.580426961781430717e-02,1.343311755113769101e-01,-2.158388154620474175e-01,-1.770660314212601366e-02,-8.595015685602228062e-02,2.152331847001363596e-01,5.772491391019405477e-02,-7.804374447341530519e-02,-1.149022108833704370e-01,-1.952918721746940978e-01,-1.171236137277092831e-01,-1.762836862654061643e-01,-7.161777877948492799e-02,7.827758295773004638e-02,1.184617670757759922e-01,2.218327291567584181e-01,6.124981347455282776e-02,3.952940400416030120e-02,1.387692117944688830e-01,-8.297106321801880902e-02,1.062517725389065804e-01,-2.335663761113073444e-01,-4.773330209887286651e-02,3.335496251790272954e-02,7.333519770741550592e-02,-1.505241288177812664e-01,2.715421702426090711e-02,1.522552431588427039e-03,6.209625811089092284e-02,7.674457409868205848e-02,-8.350479653052075846e-02,8.126537128691907474e-02,-5.491410755322886916e-02,-8.098704871418507811e-02,2.947111309870427756e-02,1.795960766546290110e-01,-9.409158391127135646e-02,-1.370746284733062037e-01,1.008500165174625318e-01,1.534688755552660600e-01,-8.387023251227687659e-02
-1.214814131636859362e-01,1.201672963353973417e-01,-2.568386152623922461e-02,4.901486942321959389e-02,2.590566537744412035e-01,2.929279251390258798e-01,-1.164435998048594517e-01,-3.529859996111690129e-02,1.204222977896893809e-01,-6.107525837031011623e-02,1.497388843964312655e-01,1.053223328777908863e-01,-8.326447219782742715e-02,-1.180692204415701493e-03,-1.500605007851816552e-01,-8.851552226804035306e-02,1.577763237102446370e-01,-2.130811296367458169e-02,-2.833972910895588351e-02,-1.364121920324561921e-01,1.932711154546602750e-01,-1.664343917121358374e-01,5.033685084716506969e-02,-1.514534120207902401e-01,-8.147838485704787803e-02,-2.546094564881366470e-02,7.183033245088719931e-02,1.553506751783438056e-01,-9.695849014504935581e-02,1.492953872510309199e-01,-3.512144547687289647e-02,-1.624082399364767115e-01,1.216369024346068001e-01,-4.334541897963306058e-03,-1.065839526424796901e-01,1.053265901063568932e-01,2.187321759409633637e-01,1.352743317323104044e-01,2.089823339580675898e-01,7.743974780690911219e-02,2.055204194989589672e-01,1.002666850958392197e-01,-1.224017738121502968e-01,6.552110802894078878e-02,1.531578170454932775e-01,1.029414305660933254e-01,-8.768205095502841495e-02,3.635282658493759617e-02,1.649765686795860026e-02,-4.564425740113158686e-02,-1.657550266623813717e-01,8.778595911448933836e-03,1.149580589439963413e-01,-1.990345538902071054e-01,-1.739789660232621549e-01,-3.335525434415342882e-02,4.574353858093187231e-02,1.817650309817036847e-01,-1.054748430299104617e-01,-7.621106975178355489e-03,5.236292022959608550e-02,-1.470332023332032445e-01,-3.359446096051362796e-01,4.751280333458473421e-02
1.439923845314184381e-01,8.822805033310779366e-02,1.391883132091610853e-01,1.082001762122500182e-01,5.770774924147194750e-03,3.620044304816975173e-02,7.024185189901566151e-02,-2.566263324643301424e-01,1.848879832321214944e-01,-7.440868212050405495e-02,-2.199573492076044856e-01,7.843874510879805806e-02,2.966819622012352789e-02,-1.311990288392749643e-02,-3.955991828458840787e-02,-1.026638668945094729e-01,7.478049221019131276e-02,9.364710732311098962e-02,-5.716796669780933177e-02,1.452731252720864119e-01,-9.583292649891023141e-02,7.794242603397669167e-02,1.418876320164160765e-01,7.332687485414090926e-03,5.144937297631439060e-02,-6.978203417568482059e-02,-2.272220016008015889e-02,2.120617039557392072e-02,2.633867636411257318e-01,2.171625616204787557e-01,9.692694025813429481e-02,-8.676404616575379702e-02,1.388474602099567211e-02,-1.291496891011765236e-01,3.616869898551199058e-02,-9.114479972624779658e-02,-6.471855171014423425e-03,1.305597734162702583e-01,-2.177036841374540010e-01,-8.434374950942598315e-02,-1.753197956827451387e-01,-1.953783888390363613e-03,-1.320357421033990265e-02,1.510597457888568917e-01,1.427782365424851499e-02,6.900960247714615914e-02,3.953557958457526444e-02,1.279358595169426127e-01,-6.455955556169433451e-02,-2.125051541723293747e-01,-2.800174887102080956e-01,-1.337353658466474415e-01,6.312348952594078189e-02,-3.889053158206075972e-02,-4.456844483936334318e-03,-1.150105255605365778e-01,3.441092135928437018e-02,-2.090546815858951562e-03,1.448858520138260886e-01,-2.182471311441756563e-03,1.249446314055513013e-01,-2.028616489510820242e-01,8.648687833499587446e-03,1.877720244700564062e-02
